solver_type L2R_L2LOSS_SVC_DUAL
nr_class 8
label 1 2 3 4 5 6 7 8
nr_feature 335
bias 1
w
-0.1079759994596002 0 0 0 0 -0.0181548300440802 0.1338266397644644 -0.1361421765771787 
0 0 0 -0.02234784078313231 -0.06584788049784748 -0.04773102115547175 0.1739219543373692 -0.1149364764881901 
-0.1081866643591325 -0.1140061174427754 -0.04657809862220912 -0.04766289436159703 -0.01844686109168933 0 0.688013287468658 -0.107519854514786 
0.1685645650336363 0.05904492740601059 0.1246013510817628 0.1211113600245223 -0.1338738263167535 -0.1168630220004548 -0.04103215140295977 -0.09753163774759474 
-0.1160715134399276 -0.01716954352010577 -0.1251752029258266 -0.03797572388715161 1.006935631897416 -0.1312620127706376 -0.09699172808617722 -0.7224169744628054 
0.3166652492716535 -0.1021343570181595 -0.1504008669321306 0 -0.003869604503052254 0 -0.04103215140295979 0 
0 0 0 0 0 0.00805168866325477 0 0 
0 -0.08871269531562388 0 -0.07020731213229825 -0.02588744187183347 0 0.2261212490738233 -0.06091763284058312 
-0.03487397971650023 -0.01323458525007384 -0.4239213986698045 0.6340429052088917 -0.06525419645659369 -0.03657490204526737 -0.01074422753669373 0 
-0.1453591259563886 0.2020664684837631 -0.02327166763682725 -0.008426164574411399 -0.1653217867373169 0 -2.168404344971009e-19 0 
0.1286671125220005 -0.1309498099399771 0.03447662378502572 -0.02964532159843932 0.06423375137872778 -0.0249199017377608 0.2856610938345311 -0.1243319999235198 
-0.009676410819481491 -0.01383857051175056 -0.4191745639598093 -0.01348416511713296 0 0.6305332159497141 0 0 
-0.1510378803148438 0.3484433000047421 -0.09576868325148563 -0.0523773391011854 -0.02499209671649073 -0.174479019958191 0.2035084217256002 -0.194968714074103 
-0.0007854312245270602 -0.05649276498127938 -0.06865236420015847 -0.0763253054340863 0 0 0.06739064649079489 0 
-0.05681528738674599 -0.01323458525007384 0.205110989075247 0.1439812515665564 -0.09103806177245251 -0.1960335406840002 0.03386416559556434 3.469446951953614e-18 
-0.1227842912939821 -0.0261209510404854 -0.046125856854056 -0.07021511240321175 0.01802202330716809 -0.03144294589828154 -0.008647268145386699 -0.02511557492927051 
0 -0.01335654349487511 0 0 -0.01358477147678761 0 0 0 
-0.01955775155886334 -0.104817071146107 0.002228515491165291 -0.004469220946875139 -0.1826948849276983 -0.004063037785297353 -0.03300495318734509 0.1726586204038056 
-0.04341640575971485 -6.938893903907228e-18 0.05306012467200265 0.008893061666638447 -0.1033602673877645 0 0 0 
0 0 0 0 0 0 0.03778286221934771 -0.06769887548717236 
-0.0003740624894436185 -0.07876521948640121 -0.04396130803027693 -0.1160160019507444 0 0.2879111895197292 0 -0.01197300983821066 
-0.08922488964794538 0 -0.1185927641645544 -0.02390337170661316 -0.0442307264075481 -0.04217874724818643 0.2976389013296483 -0.06240109084204923 
0 0 0 0 -0.06112649392682395 0 -0.04954997419358939 0.07838038514659662 
-0.1564337353390185 0.1983491863100958 0.005157681138091941 -0.2322881261124885 0.0594197275483777 -0.008828255069001858 -0.02315274675028408 -0.09033076569413469 
-0.1322872710472005 0.1925357292718408 0.1059430777650266 0.03991458448311876 0 -0.0249199017377608 -0.07844354774850058 0 
-0.08922488964794538 0 -0.1185927641645544 -0.02390337170661316 0 0 0.2400963296803046 -0.06240109084204923 
-0.1059181118672659 -0.136149856510042 -0.0676853792257308 -0.01603355124715242 0 -0.1079048475704982 0.4632340049722676 -0.194968714074103 
0 0 -0.046125856854056 -1.734723475976807e-18 0 -0.0350948904688542 -0.06215094832428605 0.02307384704133156 
0 -0.126604969249256 0.2935766926388096 0.176805111436926 -0.08326552648855465 -0.1069980570982578 0 -0.05051759748347832 
-0.1230933392440167 -1.734723475976807e-18 -0.009529226297563434 0 0 0 0.08958794385128201 -0.06769887548717236 
0 0 0 0 0 0 0 0 
-0.07527961099438421 -0.009837207402948765 0.1756678797059446 -0.0007763560954483599 -0.09696089040370538 -0.2468256109392936 0.1012987037204969 0.04792512996258841 
0.2703090667568298 -0.1109414453770714 -0.02021314330795054 0.0229821553621621 -0.02499209671649072 -0.129496690543124 -0.06783225816489594 0 
0.3810079279028724 -0.1109414453770714 -0.06694478301060983 -0.0523773391011854 -0.02499209671649072 -0.107976879820171 0 0 
-0.1132746114266005 -0.1582965967092784 -0.8938957287135672 1.101333301862797 -0.04814807894980351 -0.1425717921849096 -1.084202172485504e-19 -0.08874630933017578 
-0.08057722527577009 -0.01097629744568623 -0.03544723627030139 0 0 0.1504855996679151 -0.1090167040217544 0 
-0.0007854312245270602 -0.03731535377372554 -0.05011501775371219 0 0 0 0.06739064649079489 0 
0.1827475106819953 0.08629862626697196 0.01517403739544448 -0.03617895668702452 -0.0001252342179738422 -0.07281188576232069 -0.1620226182639561 0 
-0.05601781399101303 -3.469446951953614e-18 -0.1418025623340179 -0.1214882182100611 -0.2027600360024354 -0.1341765571244693 -0.2130639057086352 0.5089231893645284 
0 0.2443373039223286 -0.0288239002408758 0 0 -0.1087556235137374 -0.1090167040217544 0 
-0.2481545951501598 -0.2810160345658451 -0.212612909448484 -0.2392400608676935 -0.2477904923432001 -0.1251415074825545 -0.2307002905580526 0.1286538090226615 
-0.1079759994596002 0 0 0 0 -0.0181548300440802 0.1338266397644644 -0.1361421765771787 
0 0 0 0 -0.0442307264075481 -0.04217874724818643 0.05754257164934366 0 
0 0 -0.05810310261784551 -0.0008087533979212204 0 0 0 0 
-0.03487397971650023 0.2579463127652603 -0.4239213986698045 0.2949416410208089 0.05331442236570563 -0.09929222818172184 -0.02617897398572034 -0.03793183347454334 
-0.1014761185768417 0 0 0 0.2710512356136264 0 -0.124744084860134 -0.01158472054269157 
-0.03487397971650024 0.2445897692703851 -0.4239213986698044 0.2949416410208091 0.03972965088891804 -0.09929222818172184 -0.02617897398572034 -0.03793183347454334 
0.08227551316725998 -0.06187769156791255 0.0005714606774569356 0.06152119227778404 -0.1413793608271366 0.01949413785577241 0.05218187293574962 -0.2718153780262617 
-0.1541152669057574 -0.02625857501212703 0.1554748217886545 0.1723923625369604 -0.116262029892672 -0.1036013060916391 -0.06783225816489594 0 
0 -0.03508631220643457 -0.02399756087560777 -0.0469227392700592 -0.2155064836498982 -0.1249139489103624 0.6658756271416539 -0.3051256958888962 
-0.2604477941585119 -0.02907194807589885 -0.3835443612916433 -0.1172200592579909 -0.2224711315991831 -0.1212884641529274 -0.03964432698798045 0.3279728875468101 
0 -0.08871269531562388 0 -0.07020731213229825 -0.02588744187183347 0 0.2261212490738233 -0.06091763284058312 
0 -0.02608911139048326 -0.0558645799045315 0.3366530098861917 -0.007060426408721641 -0.258140772261682 0 -0.02333443133725898 
-0.06752169711843574 -0.03793974163138187 -0.01293641354284553 -0.0849660729880664 0.09363510340550497 -0.08315289776162849 -0.05545781278155122 -0.09238869223744377 
-0.0005768990688642834 -0.08379876291526009 -0.1475336984814791 -0.04894907698322438 -0.01844686109168932 0.1861539740039603 -0.2082273700339406 0.145275618466419 
-0.004074906118917934 0.01602909400588948 0.01106114733276225 0.01081845009673192 -0.1013300322393563 0.0007892357239578356 -0.0928984898664508 -0.0269544894416163 
0 0 0 0 -0.2075215219955788 -0.02175601288225723 0.3066782051344283 -0.07669119425143975 
-0.09911373283955482 0 0 0 0 -0.009380901909050899 -0.07499200048534106 0.1575734910948429 
-0.1206598076462614 -0.03655377268293171 0.4237629870575232 -0.199039137727197 0.1569403571641132 -0.07222736522015639 -0.124744084860134 -0.02872680171125586 
0.1733407719391433 -0.2207441851391736 -0.06662804129298423 -0.0971134877637225 -0.1007882043260331 -0.07941738341038436 -0.0512370463550843 0.2460054799909 
-0.1014761185768417 -0.03037083403395984 -0.03108720051981452 0 0.04067555561776717 -0.06170443570710292 0.1899165894365549 -0.1164701943877065 
0 -0.09036294682006088 -0.2257364743827591 0 0.1135344142260915 -0.04217874724818643 0.01852498508794109 -0.03906406687020066 
0 -0.01335654349487511 0 0 -0.01358477147678761 0 0 0 
-0.1014761185768417 0 0 0 0.2710512356136264 0 -0.124744084860134 -0.01158472054269157 
-0.1230933392440167 0 -0.009529226297563434 0 0 0 0.05180508163193431 0 
-0.109506129691333 0.01915927936688248 0.0563247781288921 -0.0158651239389008 0.08955709262898173 -0.009414004439120799 -0.3853306185555329 0.02999305055581644 
-0.08922488964794538 0 -0.1185927641645544 -0.02390337170661316 -0.0442307264075481 -0.04217874724818643 0.2976389013296483 -0.06240109084204923 
-0.1405396163649676 -0.1140061174427754 -0.05777790348825385 -0.04766289436159706 -0.363352740253128 -0.1123095493678795 0.1321582339993509 0.575076262475776 
-1.734723475976807e-18 -0.01917741120755384 -0.2986334265915116 -0.1989673143787391 0 0.301522417075482 0 0 
-0.543210924634957 0.5084083494582872 -0.1772871866089906 0.1202265414718162 -0.06096823687832081 0 0 -0.02333443133725898 
0 0 0 0 -0.06522889143221498 0.04360036739541834 0.0529470708344283 -0.1361421765771787 
0 0 0 0 -0.1124350026059377 0 0 0 
0 -0.02907194807589885 -0.3835443612916433 0 -3.469446951953614e-18 0 0.4571611952692414 -0.4370930907123656 
-0.1235743855530516 0.106779021392797 0.02758411389128032 0.02235678218677784 -0.06210159545761015 0.04300178707918824 -0.2542489019517792 -3.469446951953614e-18 
0 0 0 0 -0.01149056809888478 0 -0.1508397880309557 0.2103296353722587 
0.4081179269891633 -0.006630292346125687 0.1163858761123028 0.06690146800576824 -0.2472626570994044 -0.06337768113439111 -0.2629110085203972 -0.02628251789117198 
-0.1227842912939821 0 -6.938893903907228e-18 -0.07021511240321175 -0.1190478123492066 0.04360036739541833 0.1355179303135282 -0.04438594735432308 
-0.1059181118672659 -0.136149856510042 -0.0676853792257308 -0.01603355124715242 0 -0.1079048475704982 0.4632340049722676 -0.194968714074103 
0 -0.0009870320172600182 0 0 0 0 -0.01366543655797436 0 
0.1336987024250056 -0.03692964528399544 -0.01804667233378563 0.008674978855845037 -0.1133101288065187 -0.0676337284516221 0.1413399169468247 -0.1584492705881781 
-0.1017605039430131 -0.0544411018721656 0 -0.02234784078313231 -0.06584788049784748 -0.04773102115547175 0.2132693142500808 -0.1149364764881901 
-0.01955775155886334 -0.104817071146107 0.07217815108288854 0.1936052631746714 -0.1448828857979146 -0.07014489944833834 -0.03300495318734509 -0.03530744117546965 
-0.1506263474060074 -0.136149856510042 -0.0935478766456261 -0.05482022683345626 -0.4611573710757289 -0.1155687534064863 -0.1732415882106077 0.8361572228506144 
-0.000785431224527068 -0.1450643630433597 -0.1354787722094315 -0.126342126313745 0 0.1801855675674575 0.1027622884847592 0.05215838312192198 
-0.1111661973181911 0 0.4643137667264415 -0.5139650253489486 -0.0442307264075481 -0.1945535291075868 0.2225537744882767 -0.03932724380071764 
0.3772930562532364 -0.2392500469870013 0 0 0 -0.07941738341038437 -0.004363847746935361 0 
-0.1501213520108254 -0.5139163103595923 1.471444782539585 -0.3190509056104473 -0.1501905545280433 -0.2209606688697543 -0.1602116853915767 0 
-0.1589127724849082 -0.4878345664855934 -0.5653066959682895 1.619095315282969 -0.1499174947017299 -0.2148846597288994 -0.1601757480385263 -0.02695448944161629 
-0.06344679099951786 -0.04500347447132211 0 -0.04886178381473914 0.4351064523451964 -0.03994842282484564 -0.1397367505413389 -0.06923767741210658 
0 -0.01335654349487511 0 0 -0.01358477147678761 0 0 0 
-0.08057722527577008 -0.223533045309358 -0.1102280922912773 -0.0415359129672792 -0.02578386531585876 0.2121245554625233 0.05754257164934366 0.1118758214571218 
0 0 0 0 0 0 0.2999924629248579 -0.179962860982761 
0.05319419684220645 -0.09014033250670923 -0.1895524256264733 -0.1754145235869787 -0.02467857003242164 0.1578664242879172 -0.0216959163604628 -0.1935909581038484 
-0.1230933392440167 -0.08871269531562388 -0.009529226297563432 0.009402287113952537 -0.09114163832842717 0 0.2671821031690638 -0.06091763284058312 
0.2181233939980877 -0.04059208726519552 -0.05181964801909683 -0.02169831241674913 -0.0001252342179738426 -0.1286304900237689 0.04347530826725805 -0.06769887548717236 
-0.1130136633541825 -0.126604969249256 -0.1911557613600637 -0.02036725306384683 -0.07733844859673222 -0.2101432464635888 -0.08390894803308616 0.01567192838194369 
0 -0.02612095104048541 0 0 0.1370698356563746 -0.03994842282484564 -0.08201425013462864 -0.003803474616278986 
-0.04834136513660066 0.08144407865533786 -0.08999970233009516 0.3753735357865747 -0.08262489993251958 -0.2028505770757164 -0.00146358476426227 0 
-0.06968706611292723 -0.0552546635695008 -0.006405194471378356 0.0585425363872548 0.3665907562520329 -0.1973392228165565 -0.0222525062297863 -0.2311049968140475 
-0.1230933392440167 -1.734723475976807e-18 -0.009529226297563434 0 0 0 0.08958794385128201 -0.06769887548717236 
-0.09549719029010463 0.3042801430381616 -0.04398809545227298 0 0 -0.1245496136829285 0 0 
0 0 -0.03108720051981452 0 0 0 0 -0.01714208116856427 
0.4250137373959039 0.1532820668325661 -0.1099048206632282 -0.05823068413510914 -0.07305207889013877 -0.1514308778075643 -0.2216312739035891 0 
-0.08707015504265156 -0.3753999034970434 -0.07185292674229465 -0.1748245237176404 -0.3478927190048862 0.1286363535091677 -0.1088367307112692 0.4120824483244069 
-0.03149192151820714 -0.3982157193172827 -0.1478751353107963 -0.0144806442702754 -0.03256653842918565 0.7562459621428974 -0.05693875907679039 -0.03861692714873832 
0 -0.1315814833365201 0.4126542880186038 0 0 -0.1787814096739717 -0.01845582053683383 0 
0.0444102833668026 -0.01363867390372376 0.1261332721169619 0.1413320972352074 -0.326345496884537 -0.116073786276497 0.1088169523744303 -0.1854037600297947 
0 0 0 0 0 -0.0181548300440802 0.07136417609063429 -0.1361421765771787 
0 -0.08871269531562388 0 -0.07020731213229825 -0.02588744187183347 0 0.2261212490738233 -0.06091763284058312 
0 0 -0.04057042306981803 8.673617379884035e-19 0 0.1172120221857304 0 -0.05080751069805379 
-0.2404131578300276 0.170338941725118 -0.05017922913590487 0.03087392027932551 0.194214316528956 0.01516355225466016 -0.1732802306824165 -0.1117048182967061 
-0.1106988611460429 0 0.01058319784845818 -0.001616108150045953 0 0 -0.06783225816489591 0 
0.5292281499912485 -0.1536030613034879 -0.01892520267415791 0 -0.06375048328370278 0 -0.4007450342308612 0 
0 0 0 0 -0.02578386531585876 -0.04217874724818643 0.05754257164934366 0 
-0.1227842912939821 -0.1638380418687256 -0.2718623312368152 -0.1184656805345142 0.08321638083407813 -0.03367327032162238 0.02690724643456682 -0.0141600209572777 
0.2496409231110248 -0.1283392248982499 -0.1567917145591744 -0.014486523692535 -0.1077168052674993 0.1031293383775862 -0.104896360605124 0.1744634839256724 
-0.05618116299490665 -0.02370952603678271 -0.08033020773951406 -0.008085469738404951 -0.1058268945253718 -0.03430080364681166 0.1513575594275376 -0.04819028305571928 
0 0 0 -5.204170427930421e-18 6.586528197849439e-18 0 0 0 
-0.1453591259563886 0.2020664684837631 -0.02327166763682725 -0.008426164574411399 -0.1653217867373169 0 -2.168404344971009e-19 0 
-0.09911373283955485 0 -0.03108720051981452 1.355252715606881e-19 6.938893903907228e-18 -0.009380901909050899 -0.07499200048534106 0.1404314099262786 
0 -0.02612095104048541 0 0 0.1370698356563746 -0.03994842282484564 -0.08201425013462864 -0.003803474616278986 
-0.001060942422817166 0.01602909400588946 0.01106114733276225 0.01081845009673192 -0.1013300322393563 0.0007892357239578391 -0.1173329993916737 -0.0269544894416163 
0 0 -0.05810310261784551 -0.0008087533979212204 0 0 0 0 
-0.3355684993320143 0.05485937377023216 -0.0836681507597458 -0.1302995540218888 0.059289289444764 0.1297318198952951 -0.1095741903729067 -0.01535209351194822 
-0.1149405447194639 -0.2107025396470157 -0.323743613852006 -0.3363491554241955 -0.08122843953502988 0.5891092997117446 -0.1430720791566448 -0.1273136737474343 
-0.06344679099951786 -0.04500347447132211 0 -0.04886178381473914 0.4351064523451964 -0.03994842282484564 -0.1397367505413389 -0.06923767741210658 
-0.1106988611460429 -0.09296257830909836 0.04673163970265928 0.005152182331049275 0.1330620759930112 -0.02151981072295298 -0.2050498710509422 0.07256183872436192 
-0.1227842912939821 0 -6.938893903907228e-18 -0.07021511240321175 -0.1190478123492066 0.04360036739541833 0.1355179303135282 -0.04438594735432308 
0 0 0 0 -0.06112649392682395 0 -0.04954997419358939 0.07838038514659662 
-0.07353144758040445 -0.3871442192529893 0.1019824509892798 0.348199292394312 0.2959255582666306 -0.2860927492824432 -0.2299137819865412 0.1167584596281672 
0.08227551316725998 -0.06187769156791255 0.0005714606774569356 0.06152119227778404 -0.1413793608271366 0.01949413785577241 0.05218187293574962 -0.2718153780262617 
0 -0.1315814833365201 0.4126542880186038 0 0 -0.1787814096739717 -0.01845582053683383 0 
-0.02230843316577929 -0.06540867599152618 -0.01521377648477818 0 0 0.08575030802708573 0 0 
-0.08786219565301609 -0.07467303056080909 -0.06633094286797438 -0.01759645404201508 0.6366899922765981 -0.08208149536868614 2.602085213965211e-18 -0.3835549243831952 
0 -0.1315814833365201 0.4126542880186038 0 0 -0.1787814096739717 -0.01845582053683383 0 
-0.03329609355365708 0.1040754899362338 0.08416056359867111 0.07912448841062797 -0.1068141022701607 0.01516355225466016 -0.1384429118798816 -0.06239849820745964 
-0.1634028201045194 0 0 0 0 0 0 0 
-0.08452088778696679 -0.07119561806415708 0.05301827871822228 0.1393759870383733 -0.05582232781472282 0.008486654366069771 -0.2192733182874441 0.1084455749101039 
-0.1628347861209409 -0.1069638037570612 -0.2130854352811407 -0.2055506304203675 0.1399572954407795 -0.1443431420681859 -0.2797038503225653 0.2353406287194837 
-0.11454324261352 -1.734723475976807e-18 0.3105934136260903 0.1153134187572481 -0.03269085564853008 -0.3076125600053967 -0.06783225816489594 -0.004233253159333575 
0 -0.02124912228264417 -0.08999970233009516 0.3753735357865747 -0.01835486517734429 -0.1973392228165565 0 0 
-0.08922488964794538 0 -0.1185927641645544 -0.02390337170661316 0 0 0.2400963296803046 -0.06240109084204923 
0 0 0 0 -0.06112649392682395 0 -0.04954997419358939 0.07838038514659662 
0 0 -0.03108720051981452 0 0 0 0 -0.01714208116856427 
-0.4522957699794858 0.503318224793459 0 0 0 -0.06650214013801996 -0.1447462811861782 0 
-0.01596868930018954 0 -0.1192749465338648 -0.1826331469379337 1.626303258728257e-18 -2.081668171172169e-17 -0.1828408944364004 0.1129354565558667 
0.3412167332421044 -0.04059208726519551 -0.04229042172153341 -0.02169831241674913 -0.0001252342179738426 -0.1286304900237689 -0.04611263558402396 0 
0 -0.01335654349487511 0 0 -0.01358477147678761 0 0 0 
0.1685575735775751 0.3139417180037335 -0.2893484311986712 -0.02893736423802722 -0.03158763724389969 -0.07941738341038437 -0.004363847746935361 0 
0 0 0 4.336808689942018e-19 -0.06112649392682395 0 -0.2840408047181663 0.359070811638444 
-0.0469280848045523 0.08785029082003024 0.0436284661054121 -0.05056851112886639 0.007201575754531047 -0.006295118221409047 -0.2086107457376152 -0.02772381085358099 
-0.0629720322700047 0 -0.06994963559172324 -0.04153591296727922 0 -0.1293415844621865 -0.05135521990803297 0.2137336561331366 
0 -0.03308073132286479 -0.1821908170368805 -0.180562698788837 -0.06471331351676068 0.1571205746838341 -0.002912242912679251 -1.192622389734055e-18 
0.1468151868163555 -0.2007821531555823 -0.05417436616517565 0.06788034021988923 -0.06941784905619815 -0.2124479654951965 0.01804500893501507 -0.07656111179932704 
0 0.3312994495691237 0 -0.1343121249025137 -0.007060426408721641 -0.258140772261682 0 0 
0 -0.007261877374382175 -0.08275291456093434 -0.01877534297499965 0 0.1060785140311875 0 0 
0 -0.02782839244477826 0 0 -0.06284207840994323 0.09258625572016317 -0.002406821438203683 0 
0 0.3312994495691237 0 -0.1343121249025137 -0.007060426408721641 -0.258140772261682 0 0 
-0.1230933392440166 -0.02176482089928932 0.06309942803081159 -0.08468795640257366 -0.02588744187183347 0.0716125944306393 0.1421377261314515 -0.1286165083277555 
0 0 0 0 -0.01844686109168933 0 0 0 
-0.2754101955918528 0.4016511660714231 0.03909684128103767 -0.06076131725162292 0.005120915247198649 -0.2875370331877091 0.04979375648663543 -0.1910150065352152 
-0.09911373283955482 -0.004249882993474421 -0.07721305737387057 -6.938893903907228e-18 -0.159923993656655 -0.04447579237790507 -0.1932226512223923 0.2826921266439918 
0 0 0 0 0 0 -0.1018321588842055 0 
-0.1326685522124481 -0.1892790857342866 0.5389714939925494 0.04450213464770325 -0.3822122996229992 0 8.673617379884035e-19 0 
0 0 -0.06994963559172324 -0.04153591296727922 0 -0.1293415844621865 0 0.2137336561331366 
0 -0.02612095104048541 0 0 0.1370698356563746 -0.03994842282484564 -0.08201425013462864 -0.003803474616278986 
-0.03149192151820714 0.175217065742426 -0.02785521098826637 -0.04595666171850186 -0.03256653842918564 0.06175519743949855 -0.1632784363755208 -0.03861692714873832 
0.03304372665303873 -0.02370952603678271 0.03826255642504033 0.0158179019682082 -0.0873800334336825 -0.03430080364681166 -0.0887387702527668 0.01421080778633 
-0.1180284312495279 0.3721587167754711 -0.1060147430296198 -0.2563016112014597 0.3648839603050494 -0.1791175594639335 -0.02612291243225225 -0.2311049968140475 
-0.04341640575971485 -0.02625857501212703 0.1087431820859952 0.09703286807361278 -0.116262029892672 -0.08208149536868614 -1.734723475976807e-18 0 
-0.04444578989330138 -0.04841445554868198 -0.143986924434155 -0.1146293221156279 0.5045365782072411 0 0 0 
-0.1106988611460429 0 0.04673163970265929 0.0753594944633475 -0.2075215219955788 -0.04327582360521023 0.2388459469695324 -0.07669119425143975 
0 -0.01335654349487511 1.301042606982605e-18 -6.938893903907228e-18 -0.03936863679264638 -0.04217874724818643 0.05754257164934366 0 
0 0 0 0 0 0 0.2999924629248579 -0.179962860982761 
0 -0.02782839244477826 0 0 -0.06284207840994323 0.08453456705690839 -0.002406821438203683 0 
-0.04834136513660067 0.1026932009379821 0 0 -0.06427003475517529 -0.005511354259159729 -0.00146358476426227 0 
-0.1453591259563886 0.2020664684837631 -0.02327166763682725 -0.008426164574411399 -0.1653217867373169 0 -2.168404344971009e-19 0 
0 -0.02782839244477826 0 0 -0.06284207840994323 0.09258625572016317 -0.002406821438203683 0 
-0.0007854312245270602 -0.03731535377372554 -0.05011501775371219 0 0 0 0.06739064649079489 0 
-0.0007854312245270602 -0.03731535377372554 -0.05011501775371219 0 0 0 0.06739064649079489 0 
-0.05681528738674599 -0.01323458525007384 0.205110989075247 0.1439812515665564 -0.06525419645659369 -0.1538547934358135 -0.02367840605377936 3.469446951953614e-18 
0.06481965437008112 -0.06881180942285409 -0.1032525922147614 -0.07050046378652985 0.0760610109271222 -3.469446951953614e-18 -0.05301647822094788 -0.0321642389206821 
-0.1134457675890743 -0.2108372161265906 0.9345788581834868 -0.7549827033954646 -0.03253459606504196 -0.1259433864351222 0.1516243298505604 -0.1172004892256954 
0 0 0 0 -0.0442307264075481 -0.04217874724818643 0.05754257164934366 0 
-0.1081866643591325 0.0486590197022112 0.1238111217210914 0.08351913201222307 0 -0.1892858730811742 0.02865060757321279 -0.01535209351194823 
-0.02325939472408721 -0.05918271500574003 -0.0237490465851256 0.06781747512195388 -0.02515426627055383 0.1200333957974326 -0.1071132575801493 0.02181660411493985 
0 0 -0.06994963559172324 -0.04153591296727922 0 -0.1293415844621865 0 0.2137336561331366 
-0.08499850581211157 -0.3073318082246184 0.05222584000473097 -0.05053106565660304 -0.03269085564853007 0.1894594179010815 0 0.1034087462377622 
-0.0007854312245270576 -0.04712173234940464 -0.07298011773270829 -0.04073028038934889 -0.07671945953109975 0.002628551970642231 -0.1475941341915483 0.2129017994365636 
0 -0.02782839244477826 0 0 -0.06284207840994323 0.08453456705690839 -0.002406821438203683 0 
-0.0005768990688642834 -0.05201820685660324 -0.1350629622975518 -0.04894907698322435 0 0.3456525284640583 0 -0.1060916567360409 
-0.2250505041298932 -0.03037083403395984 -0.03108720051981452 0 0.04067555561776717 0.2247417168721875 0.1271939975751451 -0.1164701943877065 
0 0 0 0 -0.2075215219955788 -0.02175601288225723 0.3066782051344283 -0.07669119425143975 
0 0 0 0 0 0 -0.07499200048534103 0.1433626833085129 
-0.07912372055252524 -0.2049346201403835 0.08548429651273555 -0.1747073457529421 0.009436717188014697 0.4870604881031456 -0.06217734971458221 -0.1159639805692143 
0 -0.01335654349487511 -2.168404344971009e-18 -0.1565385711542671 -0.05139677060657134 0.1954234461252276 0 -0.005767594553861191 
-0.1014761185768417 -0.03037083403395984 -0.03108720051981452 0 0.04067555561776717 -0.06170443570710292 0.1899165894365549 -0.1164701943877065 
0.3161049750420228 -0.02915358302927604 -0.2103485351289649 -0.2615482375449817 0.01580074841496942 -0.2875370331877091 0.3266001892211853 -0.3366184438800318 
-0.09549719029010463 0.3042801430381616 -0.04398809545227298 0 0 -0.1245496136829285 0 0 
-0.2218980241335368 -0.1638380418687256 -0.2257364743827592 -0.1184656805345142 0.08321638083407819 -0.007959281761819004 0.01406619427351196 0.1203396230962336 
0.2928553638510471 -0.02370952603678271 0.131169740160947 0.06626814089446006 -0.09920729298207692 -0.02491990173776081 -0.08438414311529571 1.387778780781446e-17 
-0.1079759994596002 0 0 0 0 -0.0181548300440802 0.1338266397644644 -0.1361421765771787 
0 -0.02782839244477826 -0.2961837421880515 -0.2544302889060968 -0.06284207840994323 0.34321376835824 -0.002912242912679251 0 
0 0.2443373039223286 -0.0288239002408758 0 0 -0.1087556235137374 -0.1090167040217544 0 
0 -0.02643928858193604 -0.1989277179460597 -0.1724915541452288 0 0.1060785140311875 -0.03300495318734509 0 
0 0 0 0 -0.02578386531585876 -0.04217874724818643 0.05754257164934366 0 
-0.03618950776092484 0.0948827983711239 -0.2874404107313211 -0.2603398061692482 -0.2007666500291984 0.6861116963431513 -0.3920853347447795 -0.1874456736115166 
-0.1079759994596002 0 0 0 0 0 0.0624624636738301 0 
-0.1840321183470619 -0.126604969249256 0.06143406935252977 0.07849741741516288 -0.09509278603694901 0.1689608212555494 0.04799752814433067 -0.07747208692509459 
-0.03148011075179748 -0.02431173185993404 0.06199301213898546 -0.09616624871114278 -0.03266235300302936 0.07025899917044173 -0.06429433981162747 -0.03850383656740367 
0.06481965437008112 -0.06881180942285409 -0.1032525922147614 -0.07050046378652985 0.0760610109271222 -3.469446951953614e-18 -0.05301647822094788 -0.0321642389206821 
0 0 -0.03108720051981452 0 0 0 0 -0.01714208116856427 
-0.04834136513660069 0.02921810588931742 -1.734723475976807e-18 -0.04825056813130234 0.02445974420201785 -0.005511354259159757 -0.06644830540687831 0.04621614622591453 
-0.1149405447194639 -0.1501954877249552 0.3650299413337286 0.3179130826818078 -0.01838636112508664 -0.1403626521885913 -0.09348944649864624 -0.1273136737474343 
0 -0.01335654349487511 0 0 -0.01358477147678761 0 0 0 
0 0 0.3076550202027937 0.3012079851719369 -0.001871235106817468 -0.4662728631853165 0 -8.673617379884035e-19 
0 0 0 -0.02234784078313231 -0.06584788049784748 -0.04773102115547175 0.1739219543373692 -0.1149364764881901 
0.1313720282680664 -0.07083125838618731 -0.034717561307668 -0.02491237842114069 -0.08738003343368249 -0.06589171716253689 0.01402351823199234 0.05215838312192196 
-0.1138609222196946 1.283135770721769 -0.3290945152715347 -0.2036023753122109 -0.06210159545761021 -0.9060231397578102 -0.1847832250472312 0 
-0.05681528738674599 -0.01323458525007384 0.0811883390837376 0.1205670747891588 0 0 0 0 
0.4871099892056742 -0.2134793119118736 -0.1648706454969279 0.002475417601327616 -0.008782044134963526 -0.01387998922748762 -0.07105756020621337 -0.02695448944161629 
-0.1737457774349123 -0.07119561806415708 0.05834816454517729 0.05927719286290692 -0.05582232781472282 -0.1453681390697443 0.007888832875774942 0.04604448406805475 
0 -0.09036294682006088 -0.2257364743827592 0 0.2702001432395773 0 -0.03901758656140262 -0.03906406687020066 
-0.02230843316577929 -0.06540867599152618 -0.01521377648477818 0 0 0.08575030802708573 0 0 
-0.197257694233118 0.249839041165996 -0.04398809545227298 0 0 -0.1245496136829285 0.03934735991271148 0 
0.03252607356861486 -0.04608757224482268 -0.05080972012294693 -0.1425863598583533 -0.3496440406581539 0.09720183751103487 -0.1904089127436766 -0.2910149525979072 
-0.1106988611460429 0 0.04673163970265929 0.07535949446334753 0 -0.021519810722953 -0.06783225816489594 0 
-0.07181968088539015 -0.01917741120755384 0.06099639420098128 -0.03204996878093841 -0.08664194835643554 0.162891828678683 -0.03693784532551922 -0.1121318810428585 
0 -0.03571298877960515 -0.04873819366420568 -0.1066559045294251 -0.01894148723912299 0.2847301402913731 0 0 
0 -0.02625857501212703 0.05568305741399256 0.08813980640697433 -0.01290176250490748 -0.1002363254127663 0.07136417609063429 -0.1361421765771787 
0 -0.08871269531562388 0 -0.07020731213229825 -0.02588744187183347 0 0.2261212490738233 -0.06091763284058312 
0 0 0 0 -0.06112649392682395 0 -0.04954997419358939 0.07838038514659662 
-0.03148011075179748 -0.4451431673378066 -0.2291785566104122 -0.1590137957581999 -0.03266235300302936 0.8605208702540526 -0.1518309981889645 -0.03850383656740367 
-0.05681528738674599 -0.01323458525007384 0.0811883390837376 0.1205670747891588 0 0 0 0 
0.1675036226108195 0.06982168253381357 -0.05799959663709789 -0.09541058493342271 -0.2352038585561098 0.1641058832344127 -0.1583651507946336 -0.1244861271892111 
0.3810079279028724 -0.1109414453770714 -0.06694478301060983 -0.0523773391011854 -0.02499209671649072 -0.107976879820171 0 0 
-0.1017605039430131 -0.0544411018721656 0 0 0 0 0.03934735991271148 0 
0.03304372665303873 -0.02370952603678271 0.03826255642504033 0.0158179019682082 -0.0873800334336825 -0.03430080364681166 -0.0887387702527668 0.01421080778633 
-0.1079759994596002 0 0 0 0 -0.0181548300440802 0.1338266397644644 -0.1361421765771787 
0 0 0.1896092508883366 -0.1948415131003738 -0.1141108784495132 0 0 0 
0 0.1016822106988296 0.06900918999862291 0.02718611552538736 0.1370698356563746 -0.1781160839462425 -0.1910309541563829 -0.003803474616278986 
-0.0290369376834257 -0.3846453570633683 -0.04906187012708484 -0.1482175300251352 -0.2102037661322809 -0.1261878049330098 0.1158482105158715 0.1573078367476183 
-0.04444578989330138 -0.137127150864306 -0.654327795568744 0.1091808848431603 0.1815433183885377 -3.469446951953614e-18 0.2261212490738233 -0.06091763284058312 
0 0.2147178230230799 0.202491322157328 0.0005243536590983452 2.276824562219559e-18 -0.4925002570237935 -0.1274725245585883 0 
-0.1230933392440167 -1.734723475976807e-18 -0.009529226297563434 0 0 0 0.08958794385128201 -0.06769887548717236 
-0.06797529941791305 -0.01917741120755384 0.3773058231413614 0.412494123926811 -0.05582232781472282 -0.2078242896358024 -0.03643242385104364 -0.1121318810428585 
-0.08922488964794538 0 -0.1185927641645544 -0.02390337170661316 -0.0442307264075481 -0.04217874724818643 0.2976389013296483 -0.06240109084204923 
-0.0930692711154226 -0.357388560959607 0.08940442985434525 0.3760702945834326 -0.07468251701712726 -0.2860927492824432 0.06015094865238858 0.0873768800110323 
-0.2651633240475326 -0.08351304994806438 -0.3835443612916433 -0.02234784078313231 -0.06584788049784748 -0.04773102115547175 0.8440757520508076 -0.5886297448748034 
0.3412167332421044 -0.04059208726519551 -0.04229042172153341 -0.02169831241674913 -0.0001252342179738426 -0.1286304900237689 -0.04611263558402396 0 
-0.1486431127114665 0.1256246307974547 0.1182062497601712 0.04714911732648525 0 -0.1245496136829285 -0.009829556287176258 0 
-0.1289185904123709 0.2523424805244835 -0.2305953477343617 -0.3068036790477427 -0.07133046116389691 0.1194825895962805 -0.09749193591420044 -0.05105032397796096 
0 0 0 0 -0.02578386531585876 -0.04217874724818643 0.05754257164934366 0 
0 0 0 0 0 0 -0.1018321588842055 0 
-0.004092958042691225 -0.1358030166948787 -0.1032525922147614 -0.07050046378652985 0.2136483853654345 -3.469446951953614e-18 -0.07241905057445626 -0.0321642389206821 
0 0 0 0.07960959924625079 -0.06525419645659368 0 -0.01074422753669373 0 
0.604086812309692 -0.2162452553086235 -0.14206560896199 -0.04520045009806656 -0.1573774951391503 3.469446951953614e-18 -0.1614415666156233 -0.03087494995322707 
-0.1042117256830443 -0.04761937927809462 -0.05633434658404858 -0.03916273524301809 0.3535675013453359 -0.3058996677824504 -0.1235680976274335 0.06327773516501678 
-0.1993792454514445 0.2609774931503724 -0.1294434374873329 -0.1379891850255816 -0.08926213147166603 0.04116700877488275 0.2480381430204994 -0.194968714074103 
0 -0.01335654349487511 0 0 -0.01358477147678761 0 0 0 
-0.009507278249938229 -0.01402194430211667 0.9772773437519084 -0.1948415131003738 -0.1141108784495132 -0.7027605811698705 0 0 
-0.1081866643591325 0.0486590197022112 0.1238111217210914 0.08351913201222307 0 -0.1892858730811742 0.02865060757321279 -0.01535209351194823 
-0.05681528738674599 -0.01323458525007384 0.1589851322211908 0.1439812515665564 -0.06525419645659371 -0.1889496839046677 -0.08582935437806544 0.02307384704133156 
-0.01955775155886334 -0.09755519377172467 0.03105627182709481 0.05584203499540373 -0.1942643797214645 0.5546315733401124 -0.03300495318734508 -0.1421810298653334 
-0.04341640575971485 -0.02625857501212703 0.1087431820859952 0.09703286807361278 -0.116262029892672 -0.08208149536868614 -1.734723475976807e-18 0 
-0.1106988611460429 0 0.04673163970265929 0.07535949446334753 0 -0.021519810722953 -0.06783225816489594 0 
0 0 0 0 0 -0.0181548300440802 0.07136417609063429 -0.1361421765771787 
-0.08499850581211156 -0.06299450430228951 0.09335157535557845 -0.00899515268932383 -0.0326908556485301 0.2100453788495306 -0.1090167040217544 -0.1103249098953745 
-0.1097409315631582 0.5847738124037842 -0.135036919410435 -0.1576457135937094 -0.06210159545761013 -0.1245496136829285 -0.07844354774850062 0 
-0.1461445571809155 0.1647511147100376 -0.0733866853905395 -0.008426164574411399 -0.1653217867373169 -3.469446951953614e-18 0.06739064649079489 0 
-0.1634028201045194 -3.469446951953614e-18 -0.02371299864321289 -0.04766289436159703 0 0 0.1091708187665989 -3.903127820947816e-18 
0 -0.03508631220643457 -0.02399756087560777 -0.0469227392700592 -0.2155064836498982 -0.1249139489103624 0.6658756271416539 -0.3051256958888962 
0.06620155659908461 -0.08933556124957334 0.02817306417445468 -0.1003638733379659 -0.00386960450305224 -0.07490447470270631 0.3224513918589831 -0.08305096899912059 
-0.06297203227000472 0 0 0 -0.06522889143221498 0.06175519743949856 -0.06977232516423897 -0.07712076371614197 
-0.1453591259563885 0.1117035216637023 -0.2490081420195863 -0.008426164574411399 0.1048783565022604 0 -0.03901758656140262 -0.03906406687020066 
0 0 0 -0.07021511240321174 -0.03050109326971233 0 0.3910547566887085 -0.3315649571540781 
0 0 -0.1771767984525801 -0.1590137957581999 0 0.289838867581295 -0.09289848986645077 0 
-0.709127690550198 0.2017409535631393 0.2824046065788688 0.1341134263714315 -0.09710492523734676 0.1943617964499176 -0.1239733816242396 -0.2305574807685157 
-0.04341640575971485 -0.02625857501212703 0.1087431820859952 0.09703286807361278 -0.116262029892672 -0.08208149536868614 -1.734723475976807e-18 0 
-0.06891261241277236 -0.06699120727202465 0 0 0.1375873744383123 0 -0.01940257235350844 0 
-0.1277444159179958 -0.08923878276676032 -0.2938565644356945 -0.2046462887738795 -0.2077249642078578 0.3639626653396385 -0.007266588526811571 -0.05065953468741786 
-0.1091183017290204 1.037137934666088 -0.2834885794255149 -0.1601177225786037 -0.03158763724389969 -0.1892858730811741 -0.145427367855304 0 
-0.1017605039430131 -0.0544411018721656 0 -0.02234784078313231 -0.06584788049784748 -0.04773102115547175 0.2132693142500808 -0.1149364764881901 
-0.02616807362903547 0 -0.09877257974554537 -0.01603355124715242 0.1573515208446311 -0.1079048475704983 0.1484509470632056 -0.1192801732613883 
0 -0.02235644528473003 -0.0487381936642057 -0.1066559045294252 -0.005356715762335378 0.2847301402913731 0 0 
-0.04341640575971485 -0.02625857501212703 0.1087431820859952 0.09703286807361278 -0.116262029892672 -0.08208149536868614 -1.734723475976807e-18 0 
-0.08786726234364804 0.2685677063481603 -0.1900292720193908 -0.08008492705477407 -0.1327698996430856 -0.06035092421361078 -0.115821050453847 0.1055586318525829 
0 0 -0.03108720051981452 0 0 0 0 -0.01714208116856427 
0.1499636495738642 0.005087256935327319 -0.2745309492395422 -0.1191124380190586 -0.0135847714767876 -0.08405859663795844 0.4052361372422125 -0.4079575546034404 
0 0 0 0 0 0 -0.05135521990803297 0 
0 0 0 0 0 -0.0409718154247761 0.05636690583904518 0 
-0.1227842912939821 0 -0.046125856854056 -0.07021511240321175 -0.1190478123492065 0.008505476926564101 0.07336698198924184 -0.02131210031299155 
-0.1017605039430131 -0.0544411018721656 0 0 0 0 0.03934735991271148 0 
-0.1079759994596002 0 0 0 -0.2075215219955788 -0.02175601288225723 0.3691406688082582 -0.07669119425143975 
-0.06891261241277236 -0.06699120727202465 0 -0.1565385711542671 0.09977537530852859 0.1954234461252276 -0.01940257235350844 -0.005767594553861191 
0.3765866473665307 -0.3761136292382818 0.04278026529855721 0.4095926429981967 -0.05768295236502085 -0.2921997252423051 -0.04599330605916133 -0.03180150655661872 
0 0 -0.000291966370263962 0 0 0 0 0 
0 -0.02124912228264417 0.0996095485582414 0.1805320226862009 -0.1324657436268575 -0.1973392228165565 0 0 
-0.1079759994596002 0 0.03614844185420111 0.07697560261339348 0 -0.021519810722953 0.06246246367383007 0 
0 0.09221637709839672 -0.0288239002408758 0 0 0 -0.04599330605916133 0 
-0.07006623997042605 0.144794425987641 0.05592762045894936 0.05168982284416685 -0.04606592083349925 -0.3701287884963974 0.3301936841226552 -0.3024885685888893 
-0.07168565211442897 -0.09370695152291708 -0.1071440667069959 -0.1817490951013717 0.003923460687181501 -0.2086978302714159 -0.3139770103711093 -0.2277372174328911 
-0.05906460814873137 -0.004249882993474421 -0.0935478766456261 -0.05482022683345628 -0.06044671861379774 -0.009380901909050896 0.05536053982342838 -0.05617264619886751 
-0.06968706611292724 -0.07761110885423098 -0.05514338813558407 -0.04811336814217034 0.3612340404896972 0.08739091747481655 -0.0222525062297863 -0.2311049968140475 
0 -0.09036294682006088 0.03069204623527272 0.0515017518682687 0.2090736493127534 -0.2333792201857623 -0.08856756075499206 0.0350830651170624 
-0.06891261241277236 -0.06699120727202465 0 0 0.1375873744383123 0 -0.01940257235350844 0 
0 -0.02124912228264417 0.0996095485582414 0.1805320226862009 -0.1324657436268575 -0.1973392228165565 0 0 
0.2038935857971229 -0.1042976827377115 0.2681286857870943 -0.12250452656911 0.3457476258297808 -0.2167325033339083 -0.1090167040217544 -0.3835549243831952 
-0.09549719029010462 0.1196288361577853 -0.1229259123826356 -0.1106468929814182 3.794707603699266e-19 0.1618971182926356 -0.09755971595924406 -1.734723475976807e-18 
-0.2842676268769622 -0.0471217323494046 -0.1658873014686151 -0.0911805193156007 0 -0.04097181542477611 0.2393036793580696 0.052158383121922 
0 0 0 0 0 0 0 0 
0 0 0 0 0 0 -0.05135521990803297 0 
0 0 -0.05810310261784551 -0.0008087533979212204 0 0 0 0 
-0.06891261241277236 -0.06699120727202465 0 0 0.1375873744383123 0 -0.01940257235350844 0 
-0.1768946629346621 -0.01323458525007384 0.1359168039825532 -0.01534466415236549 -0.1030661955863774 0.04156865268941395 0.003692166052932011 -0.005767594553861181 
0 -0.02124912228264417 -0.08999970233009516 0.3753735357865747 -0.01835486517734429 -0.1973392228165565 0 0 
-0.09704497405399294 0 0 -0.006281323223813998 0 -0.02514269514680394 0.3847900492464378 -0.2718153780262617 
-0.02230843316577929 -0.06540867599152618 -0.01521377648477818 0 0 0.08575030802708573 0 0 
0 0 -0.046125856854056 -1.734723475976807e-18 0 -0.0350948904688542 -0.06215094832428605 0.02307384704133156 
0 0 0 0 -0.0795733550185133 0 -0.04954997419358939 0.07838038514659662 
0.1817374284415811 -0.02642726957517233 0.007977945627333505 -0.03377497946183337 -0.07463412511784187 -0.257930353649763 -0.101875894438658 -0.194968714074103 
-0.05681528738674599 -0.01323458525007384 0.205110989075247 0.1439812515665564 -0.06525419645659369 -0.1538547934358135 -0.02367840605377936 3.469446951953614e-18 
0 0 0 0 0 0 -0.1018321588842055 0 
0 0 0 0 -0.2075215219955788 -0.02175601288225723 0.3066782051344283 -0.07669119425143975 
0 0 0 0 -0.01844686109168933 0 0 0 
-0.1081866643591325 0.0486590197022112 0.1238111217210914 0.08351913201222307 0 -0.1892858730811742 0.02865060757321279 -0.01535209351194823 
-0.1227842912939821 0 0 -0.07021511240321174 -0.04232835281810676 0 0.5319507746994894 -0.3315649571540781 
0 0 0 0 -0.01844686109168933 0 0 0 
-0.2467874332360799 -0.1315814833365201 0.3449689087928731 -0.02231487447096642 0 -0.02538279981198347 0.3725976328495219 -0.2718153780262617 
-0.1453591259563886 0.2020664684837631 -0.02327166763682725 -0.008426164574411399 -0.1653217867373169 0 -2.168404344971009e-19 0 
-0.1865464178230561 -1.387778780781446e-17 0 -0.02234784078313232 -0.1310767719300626 0.3004703288633171 0.04142703731172038 -0.1920572402043319 
-0.0007854312245270602 -0.03731535377372554 -0.05011501775371219 0 0 0 0.06739064649079489 0 
-0.2097365034026134 -0.05969344075025207 -0.193662095051623 -0.227340395054677 -0.3635286540984808 -0.01896056687793204 -0.06323065908863421 0.6111337668778519 
0.3371051590578464 -0.05777996254082226 0.1375541126948006 0.08357680830414704 -0.07299969298837097 -0.063321531274964 -0.2125388548691918 -0.02073152237294451 
-0.4154023668387926 -0.002488202536354091 -0.2036403574410154 -0.04594399729563191 -0.01608996981180235 0.06204907366126882 0.250641160685892 -0.4652715128733861 
-0.4328539106187717 -0.5910276826709006 -0.5109127375155378 -0.5115637211652089 -0.3470929221245843 -0.5621374142616413 -0.3447662603557644 -0.2804712894460465 
