solver_type L1R_L2LOSS_SVC
nr_class 5
label 1 2 3 4 5
nr_feature 97
bias 1
w
0.973895462721432 0 0 0 -1.585853376555113 
0.6056596030857203 0 0 0 0 
0 0 0 0 0 
0 0 0 0 0 
0.2313744394678876 0 0 0 0 
0 0 0 -0.5097787157144716 0.02557872577693815 
0 0 0 0 0 
1.234999396707396 0 0 0 0 
0.2035743835593836 0 0 0 0 
0.4107252565157322 0 0 0 0 
0.8049270592234705 0 0 0 0 
-1.417613189475791 -0.01684972095034227 1.949880783016238 0 0 
0 1.681279181885059 0 0 0 
0 0 0 0 0 
-1.418934396576985 -0.01788096046803325 0 1.951663065997532 0 
-0.355337533039902 -0.04004178949354014 -0.004191912830750397 0 0.8364688274772392 
-0.3961350627430473 0 0.07194138181264133 0 0 
0 0 0 0 0.002427952220581755 
-1.089274743484268 1.661401042098854 0 0 0 
0 0 0 0 0 
-0.09654901741476479 0 0 0 0 
0 0 0 0 0 
0.3596693518087246 0 0 0 0 
0 0.0213139762112934 0 -0.02495468068668017 0 
-1.025815902139645 0 1.889665528409755 0 0 
0 0 0 0 0 
-0.1529600244428743 1.827791024717499 0 0 0 
0 0 -1.195381145273684 0 0 
0 0 0 0 0 
0 0 0 0 0 
0 0 0 0 0 
0 0.770922326159252 0 0 0 
0 0 0 0 0 
-0.9592906531535358 0 -0.4582301286608402 0 0 
0 0 0 0 0 
0 0 0 0 -1.783372276764382 
-0.2376700688556405 0 1.682227151360427 0 0 
0 0 0 0 0 
0 0 0 0.02601007773422315 0 
0.8278726362098536 0 0 0 0 
-0.3800966220389925 0 0 -1.006255810101079 0.04464784268455952 
-0.9714076587631612 0 0 1.919546581209793 0 
0 -0.01335217497539035 0 0 0 
0 0 0 0 0 
0 0 0 0 0 
-0.6890738133262824 0.1061958069970923 0 0 0 
-0.08894770322578284 0 0 0 0 
0 0 0 0 0 
-0.2104861936431949 1.116908889562389 0 0 0 
0.4184619985972279 0 0 0 0 
-0.4340582130712068 0 0 0 0 
0 0 0 0 0 
-0.2521724333552368 -0.04754127355314223 0.01341029726084283 0.02521605718696501 0 
-0.8767211278091702 0.9118478038114778 0 0 0 
-0.5185239947330229 0 0 0 0 
0 0 0 0 0 
0 0 0 0 0 
0 0 0 0 0 
0 0 0 0 0 
0 0 0 0 0 
0 0 -1.66394778138802 1.775503041712742 0 
0.4684116352829495 0 0 0 0 
0 0 0 0 0 
-0.6721273637901466 0 0 0 0 
0.07766786508281286 0 0 0 0 
0 0 0 0 0 
0.829712855786459 0 0 0 0 
0 0 0 0 0 
0 0 0 0 0 
0 0 0 0 0 
0 0 0 0 -0.9938185608267689 
0 0 0 0 0 
-0.8457145312462777 1.814723874265348 0 0 0 
0 0 0 0 0 
-0.6721273637901468 1.806279181885059 0 0 0 
0 0 0 0 0 
-0.350812894705587 0 0 0 0.0651213584765068 
-0.05567549687674499 0 0 0 0 
0 0 0 5.062403709649166e-05 0 
0 0 0 0 0 
-0.04068364313122082 0 0.004717834324951767 0 0 
-0.5471725001650696 0.03123924228817812 0 0 0 
0 -0.01854694880402609 0 0 0 
0.0186069965004973 0 0 0 -0.02975382706345849 
0 0 0 0 0 
0 -0.01131129045426423 0 0 0 
0 0 0 0 0 
0 0 0 0 0 
0 0 0 0 0 
0 0 0 0 0 
0 0 1.661538963172361 0 0 
0 0 0 0 1.741372329281984 
0 0 0 0 0 
-0.2341136520560653 0.5321122149117768 0 0 0 
0 0 0 0 0 
0 0 0 0 0 
0 0 0 0 0 
-0.07971285578645884 -0.9327701299707302 -0.9818623416444788 -0.9842278831536209 0 
