solver_type L2R_L2LOSS_SVC_DUAL
nr_class 5
label 1 2 3 4 5
nr_feature 97
bias 1
w
0.2073531422215426 -0.1652634138983662 -0.04092045266014883 0.0172984351486374 -0.1490347991526853 
0.3463945367338943 -0.2867924708545128 0.07241354214599505 0.102872362064143 -0.3436483383238632 
-0.1212736823393266 0.05172327578785176 0 0 0 
-0.1759242301975175 -0.04816405567924236 -0.01503765145054112 0 0.1322724017220892 
0.6391539544451543 -0.08760890039943643 -0.2784032380699187 -0.2221599017112373 -0.02937358482697136 
0.01646421859209388 -0.2256742395887545 -0.08189268225516509 -0.3058401444628747 0.255364598210316 
0 0.2440070715391047 -0.1473955249289196 -0.07693740063415648 0 
0.7266179033666624 -0.1983543801186824 -0.1845865239370987 -0.2202918944847428 -0.2046545966419631 
-0.06920314388986357 0 0.1782961270991137 0.1326092696500262 -0.167013051683794 
0.5858126116066293 -0.5109174311461887 0 -0.02111021374181739 0 
0.6853897875250277 -0.1808164567811643 -0.2201241824982343 -0.06972926987987751 -0.02847733421280119 
-0.9276042523205039 -0.4788276978544205 1.52470295690993 -0.3176918302343245 -0.1082995608595353 
-0.04828769804468173 0.7460248720822688 -0.587560806629154 -0.03258185317306591 -0.05462311589974556 
-6.938893903907228e-18 0.0189254626580613 0.08210147076032701 0.06040222859665698 -0.03517457692124851 
-0.9674860331927876 -0.4643192838574332 -0.402500304598358 1.596541492966967 -0.1007084917164456 
-0.3295299149036182 -0.3248087859099997 -0.418099964018304 -0.2835767509643217 0.5015295137787756 
-0.2840214732443207 0.06503844827066588 0.412414484916137 -0.09184271447150148 -0.1097370464551766 
-0.1098406067817722 -0.1085427584551808 -0.07341230771554301 -0.06477271056199228 0.2957284619928334 
-0.8425480419006096 0.7714431770526213 0 0 -0.05493300465966385 
0 0.4062404090551894 0 0 -0.119661214325714 
-0.1992316726841337 -0.00441245497350339 0.04654593376839701 0.03446850484369125 0 
0 0 0 0.2023349167951573 -0.1670130516837941 
0.3290880187553286 -0.0547094389946064 -0.1027019959459963 -0.07466098701364236 -0.06443842365316822 
-0.09440267406663877 0.2950640114517921 -0.1855271914631835 -0.2808486478944381 0.08036971361191654 
-0.6354919738954912 -0.2304216717283041 1.152001680414441 -0.489633813430313 -0.01586309047240956 
-0.08677798301503005 0.05675495777925197 -0.007484202011553365 -0.001843413603794017 3.469446951953614e-18 
-0.3878166160507122 0.6860512533033662 0 -0.01513273943075407 -0.129301288291009 
0 -0.2260092167548006 -0.4222619438523834 0 0.2138609855416425 
0 0 0 0 0 
0 -0.07625573330815243 0.002124584242964328 -0.1186318331964121 0 
-0.1165553402783235 0 -0.03129718520364733 -0.05373074931630815 0.1335168205022199 
-0.2062904060417701 -0.07384427442754186 -0.04837856556583896 -0.09577703305683005 0.2539188733308124 
-0.1482488807181979 0.380132936235801 -0.1490465366627209 -0.08749086950603253 0 
0 0 0.1442617510285972 0 -0.02026076841449978 
-0.3878166160507122 0.4600420365485658 -0.4222619438523834 -0.01513273943075407 0.08455969725063364 
0.1689900645745143 -0.03476543378812117 -0.07801635410156912 -0.04681926959098522 0 
0.1533647758779064 0.1235898039448931 0.0526961249420817 0.09825190224957391 -0.6052229164433109 
-0.2565602320503148 -0.113122422645563 0.4324721735334188 -0.2000633526141833 -0.01224011260560501 
0.2490002073312461 -0.079288592313635 -0.02663061988268845 -0.07076728287191662 -0.03135676003221597 
0 -0.158184241725377 -0.06685503080462395 0 0.1049735509568838 
0.6632648718096437 -0.3592094057718732 -0.147070691365093 -0.09180660465796436 -0.1164611361623962 
-0.2681767443254022 0.1133918814437279 -0.01633466699706739 -0.3708503811330409 0.1807339533963719 
-0.6368501567033762 -0.126107056910733 -0.632798403367509 1.22567191461324 -0.01547284966063713 
-0.01125134560876074 -0.02579430821625693 -0.1243432020070373 -0.008608163766990137 -0.136654293546846 
-0.06610768582994617 0 0.1508077824466912 0.1692406379372106 -0.1964588230473883 
-0.3737454676805283 0.4296134507817848 0 3.469446951953614e-18 -0.01947022080660869 
-0.2342789053997461 -0.009832580052807762 0.1560103448117334 -0.001067011092685723 0.1134368590902498 
0 0 0 0 0 
-0.3737454676805283 0.4296134507817848 0 3.469446951953614e-18 -0.01947022080660869 
0.3525935288205243 -0.1047037763717454 -0.2121578113458718 -0.08503819924744706 -0.1154000594637835 
-0.5760693173813394 0.1646184238603329 0.07757221301882423 0.07933475039804531 0.04132163982283408 
-0.1655839436684511 0 0.04544130313603757 0.01323264163411289 -0.02026076841449978 
-0.3862878875030114 -0.267201304557254 0.3158017894422271 0.2227814577965324 -0.2157511543110952 
-0.4529514670647146 0.7660238184172139 -0.1751612539110514 -0.1729867518769184 -0.08760844957555018 
-0.2062904060417701 -0.07384427442754186 -0.04837856556583896 -0.09577703305683005 0.2539188733308124 
-0.0147503553169987 0.0805690467050203 -0.01797540734590686 0.01137281268586895 -0.04800428553239174 
0.1689900645745143 -0.03476543378812117 -0.07801635410156912 -0.04681926959098522 0 
0.1100223367305659 0.05675495777925197 0.04352712237438063 0.06597812094781184 -0.136654293546846 
-0.01432803139164952 0.1952419965269168 -0.2756662428696709 -0.1920658695438653 -0.05095422983965966 
-0.1165553402783235 0 -0.03129718520364733 -0.05373074931630815 0.1335168205022199 
-0.01832608232426966 -0.0559504807548053 -1.168394309103386 1.177570879790427 -0.01224011260560501 
0.3786174659217442 -0.09336154387491878 -0.1533417999822475 -0.08529424445331332 -0.3117242275393809 
-0.2653393585140797 -0.004412454973503397 0.1973537162150883 0.2037091427809019 -0.1964588230473883 
-0.3975975689963305 -0.172075146068818 0.03161255246784164 0.07236284818299196 0.4937449581081328 
0.1852105921706629 -0.1661707569643192 -0.03389122087611716 0.02885918010309158 -0.08321334656926753 
-0.07035116388762754 0 -0.1643004475081049 0.03446850484369123 0 
0.6084730793272672 -0.3594452852434282 -0.180062307406564 -0.08750019687963567 -0.1163341688288531 
-0.0966643850838694 0.1588349287320937 0.158238438481832 -0.06501023667016663 -0.1097370464551766 
-0.09666438508386938 0.04595465685327116 -0.2728672361865043 0.3129066291911169 -0.1097370464551766 
-0.1212736823393266 -0.08254926599550891 -0.1678703243814179 -0.0745862847148021 0 
0.1752240677803945 -0.1657989209854907 -0.04277527797422973 -0.1933313162885842 -0.6375471315938641 
0.1071342818737651 -0.1688281148699369 -0.1888352176144122 -0.1324782071940317 0.1825152559393015 
-0.6141135317061225 0.9625246135678092 -0.2458266058831804 -0.2154980710762703 -0.1026525068466998 
-0.3878166160507122 0.2798108442481769 0 -0.01513273943075407 -0.009640073965294966 
-0.5125915880602226 0.8731177156420573 -0.2015952388906958 -0.156877595131047 -0.08509723178396006 
-0.06920314388986357 0 0.1782961270991137 -0.06972564714513108 -1.734723475976807e-18 
-0.2219537368815636 -0.005420125079304351 -0.08613322166841589 -0.05479776040899385 0.2469536795924696 
-0.2020627816871093 0.1534148036527893 0.1034024020170634 -0.06607724776285233 0.003699812635073206 
-0.06920314388986357 0 0.1782961270991137 0.1326092696500262 -0.167013051683794 
-0.2361899218131995 0.3325896219950198 -0.01281547047866272 -0.02111021374181739 -0.06496671213386118 
-0.1094996010215464 -0.08344747364673813 0.232310584405171 0.08208765911102471 -0.1288235231721301 
-0.3737454676805282 0.3996086492934542 -0.06985800443938314 -0.02968027410616232 -0.01947022080660869 
0.1937001346571267 -0.1464975313865517 -0.02318051795416908 0.01669691776814568 -0.08231080403129225 
0.2746384582172333 0.07186652815704143 0.05269612494208176 -0.1040830145455833 -0.438209864759517 
-0.2900458231256947 0 0.316161080223859 0 0 
0.04081919284070233 -0.1885802011596838 -0.2004386943788893 -0.1072527538650367 0.06496657938919152 
0.04853353539899577 -0.2263854430329489 0.04544130313603757 0.0132326416341129 -0.03973098922110849 
-0.2891365122959516 -0.0498513236025805 0 0.3728407790233751 0 
0 -0.07625573330815243 0.002124584242964328 -0.1186318331964121 0 
0 0 0 0 -0.08760844957555018 
-0.04837668703918763 -0.587189943350175 0.7457992451109859 -0.03242838349710066 -0.05511393055543101 
-0.3314898831663844 -0.1720751460688179 -0.1191952299788496 -0.09687778975421868 0.6902037811555211 
1.040834085586084e-17 0.2232451083822556 -0.08474114315989358 -0.04217251700426637 -0.07724111261153793 
-0.3737454676805282 0.4296134507817848 -0.07231636370593031 -0.05306478807122787 -0.01947022080660869 
-0.1482488807181979 0.2481268414957237 -0.02220107332976375 -0.01966933495442656 -0.05602596535722484 
0.0003578240070917227 0.1130420150972409 -0.1140414656554314 -0.1289611625947758 -0.05775569996609676 
-0.1053983966032399 -0.005420125079304351 -0.05483603646476862 -0.001067011092685724 0.1134368590902498 
-0.1543058471232232 -0.4906077068954889 -0.4608752419925332 -0.476908067252907 -0.1360176178150893 
